{
    "type": "NeuralNetwork",
    "sizes": [
        24,
        7,
        1
    ],
    "layers": [
        {
            "weights": [],
            "biases": []
        },
        {
            "weights": [
                [
                    -0.032893966883420944,
                    -0.1200677901506424,
                    0.3779444992542267,
                    0.036669328808784485,
                    0.09040964394807816,
                    -0.043018508702516556,
                    0.215657576918602,
                    0.03194199874997139,
                    -0.19623172283172607,
                    0.3163958489894867,
                    0.297445684671402,
                    0.10742147266864777,
                    -0.1231040507555008,
                    0.0004652766219805926,
                    -0.1823194921016693,
                    -0.06790875643491745,
                    -0.05892987176775932,
                    0.06394356489181519,
                    0.23190176486968994,
                    0.3966052830219269,
                    0.041893236339092255,
                    -0.6485051512718201,
                    -0.30849912762641907,
                    -0.12841273844242096
                ],
                [
                    -0.13803182542324066,
                    -0.003011944703757763,
                    0.09162646532058716,
                    -0.013604015111923218,
                    -0.010253941640257835,
                    0.1986769288778305,
                    0.7681989073753357,
                    0.09069525450468063,
                    -0.0458897203207016,
                    0.08765104413032532,
                    0.15471266210079193,
                    0.12064521014690399,
                    -0.19969406723976135,
                    -0.27131491899490356,
                    0.02645668014883995,
                    -0.3492533564567566,
                    -0.39154648780822754,
                    -0.055631790310144424,
                    1.264435052871704,
                    0.14337371289730072,
                    -0.38128700852394104,
                    -0.26197904348373413,
                    -0.0639406144618988,
                    -0.30516743659973145
                ],
                [
                    0.093024842441082,
                    0.009477386251091957,
                    -0.08028248697519302,
                    0.0691617801785469,
                    0.027852965518832207,
                    0.4082760214805603,
                    0.4499247968196869,
                    0.23863251507282257,
                    0.3260132670402527,
                    -0.12311144918203354,
                    -0.04575400426983833,
                    0.15930621325969696,
                    -0.22240132093429565,
                    -0.6565847992897034,
                    0.11514538526535034,
                    -0.042435821145772934,
                    -0.015732355415821075,
                    0.20615462958812714,
                    0.22041727602481842,
                    -0.3101276755332947,
                    -0.7256731390953064,
                    -0.14916735887527466,
                    -0.21380086243152618,
                    -0.049326036125421524
                ],
                [
                    0.009243378415703773,
                    -0.12282563000917435,
                    0.35910069942474365,
                    -0.09569154679775238,
                    0.13944284617900848,
                    0.14287571609020233,
                    -0.06582890450954437,
                    -0.17184710502624512,
                    -0.03565913438796997,
                    0.6555366516113281,
                    -0.3247303068637848,
                    -0.015042009763419628,
                    -0.1323472410440445,
                    -0.18985508382320404,
                    0.8099105954170227,
                    -0.3574059009552002,
                    0.047901701182127,
                    0.25292548537254333,
                    -0.21749164164066315,
                    0.12469790875911713,
                    -0.027987154200673103,
                    -0.7214568853378296,
                    0.1965923011302948,
                    0.21086061000823975
                ],
                [
                    -0.11108703911304474,
                    -0.37024596333503723,
                    -0.33936911821365356,
                    -0.07569614052772522,
                    0.12613439559936523,
                    -0.024865293875336647,
                    -0.1159905418753624,
                    0.00207787798717618,
                    -0.05151648074388504,
                    -0.0528426393866539,
                    -0.28117671608924866,
                    -0.29082977771759033,
                    -0.04736728221178055,
                    -0.31706956028938293,
                    -0.5038638710975647,
                    -0.1219094842672348,
                    0.05315878987312317,
                    0.04632709547877312,
                    0.08437497913837433,
                    0.06348901242017746,
                    0.05625159665942192,
                    0.04138622432947159,
                    0.48067766427993774,
                    0.2643768787384033
                ],
                [
                    -0.336001992225647,
                    0.141020730137825,
                    0.03439495712518692,
                    -0.11989054828882217,
                    -0.12087143957614899,
                    -0.12720397114753723,
                    -0.059861376881599426,
                    -0.2912208139896393,
                    -0.12176734209060669,
                    -0.054001353681087494,
                    -0.18018794059753418,
                    0.03830725699663162,
                    -0.3920527696609497,
                    0.20001575350761414,
                    0.5833986401557922,
                    -0.18526549637317657,
                    -0.06619682163000107,
                    -0.04596368968486786,
                    0.17366430163383484,
                    -0.10783002525568008,
                    0.01919427327811718,
                    0.2906491458415985,
                    0.17434817552566528,
                    -0.09680300205945969
                ],
                [
                    0.4942026138305664,
                    0.16192787885665894,
                    -0.19351080060005188,
                    -0.12365555018186569,
                    -0.07552590221166611,
                    0.0027094583492726088,
                    0.03846809267997742,
                    0.008218387141823769,
                    0.0718265101313591,
                    0.2005213052034378,
                    -0.04481833428144455,
                    -0.2177780568599701,
                    0.7869271039962769,
                    -0.0075710308738052845,
                    -0.06953154504299164,
                    -0.38845911622047424,
                    -0.5239087343215942,
                    -0.3883560299873352,
                    0.04514051973819733,
                    -0.14369580149650574,
                    0.002897237427532673,
                    -0.2720778286457062,
                    -0.13410042226314545,
                    -0.10643421858549118
                ]
            ],
            "biases": [
                -0.24282315373420715,
                -0.1727100908756256,
                -0.05627969279885292,
                0.27897799015045166,
                -0.0233925748616457,
                0.008625819347798824,
                -0.11014942079782486
            ]
        },
        {
            "weights": [
                [
                    -0.13444925844669342,
                    0.08520251512527466,
                    -0.08442709594964981,
                    0.06687826663255692,
                    -0.10549148917198181,
                    -0.14108683168888092,
                    -0.0754435658454895
                ]
            ],
            "biases": [
                0.2526632845401764
            ]
        }
    ],
    "inputLookup": null,
    "inputLookupLength": 0,
    "outputLookup": null,
    "outputLookupLength": 0,
    "options": {
        "inputSize": 0,
        "outputSize": 0,
        "binaryThresh": 0.5,
        "hiddenLayers": [
            7
        ],
        "activation": "tanh",
        "leakyReluAlpha": 0.01,
        "learningRate": 0.0008
    },
    "trainOpts": {
        "activation": "tanh",
        "iterations": 10000,
        "errorThresh": 0.005,
        "log": true,
        "logPeriod": 25,
        "leakyReluAlpha": 0.01,
        "learningRate": 0.0008,
        "momentum": 0.1,
        "callbackPeriod": 10,
        "timeout": "Infinity",
        "beta1": 0.9,
        "beta2": 0.999,
        "epsilon": 1e-8
    }
}