{
    "type": "NeuralNetwork",
    "sizes": [
        40,
        20,
        6,
        1
    ],
    "layers": [
        {
            "weights": [],
            "biases": []
        },
        {
            "weights": [
                [
                    0.03242044150829315,
                    -1.919758915901184,
                    2.552635431289673,
                    -2.7475082874298096,
                    -0.3314167559146881,
                    -0.9013184309005737,
                    3.124807357788086,
                    1.113093376159668,
                    -0.3443220555782318,
                    -2.340294122695923,
                    -1.7236884832382202,
                    0.3255783021450043,
                    -0.7194696664810181,
                    -0.39308875799179077,
                    -0.8676550388336182,
                    1.5375927686691284,
                    -1.2743924856185913,
                    -1.9968808889389038,
                    0.9835783243179321,
                    1.4202289581298828,
                    -2.530377149581909,
                    -0.3903941810131073,
                    0.01156326849013567,
                    -0.18217547237873077,
                    0.5771393179893494,
                    0.1023557260632515,
                    1.430986762046814,
                    0.04374728351831436,
                    1.33612859249115,
                    0.6803849339485168,
                    -0.19810672104358673,
                    -0.6776526570320129,
                    0.931829571723938,
                    -1.397648811340332,
                    -0.8698292970657349,
                    -1.170919418334961,
                    -2.0373942852020264,
                    0.32082393765449524,
                    0.07645989954471588,
                    0.869133472442627
                ],
                [
                    0.482452392578125,
                    -0.4401434361934662,
                    -2.216439723968506,
                    -0.12282682210206985,
                    -0.552268385887146,
                    -1.3815386295318604,
                    -0.8821146488189697,
                    -1.9448800086975098,
                    -1.756413459777832,
                    -0.7873083353042603,
                    1.2278990745544434,
                    1.7238287925720215,
                    -0.11276007443666458,
                    0.18067890405654907,
                    3.7718663215637207,
                    -0.1608942598104477,
                    0.922826886177063,
                    2.913637399673462,
                    -2.534656047821045,
                    0.38848769664764404,
                    -1.2783336639404297,
                    -1.0472190380096436,
                    -0.9945350289344788,
                    -1.9584146738052368,
                    -1.209614634513855,
                    -1.261337161064148,
                    1.4947376251220703,
                    -1.279758095741272,
                    -0.05351525545120239,
                    1.3781671524047852,
                    2.316770076751709,
                    -1.9359384775161743,
                    0.6083106398582458,
                    1.9569861888885498,
                    -0.8133052587509155,
                    0.869849443435669,
                    0.7876180410385132,
                    -0.19302041828632355,
                    -1.8392221927642822,
                    -0.45061084628105164
                ],
                [
                    0.2150459587574005,
                    -0.46882641315460205,
                    -0.5554603338241577,
                    -1.4551111459732056,
                    -0.9847472906112671,
                    -0.78721022605896,
                    -0.6549134254455566,
                    -1.4738651514053345,
                    -0.3153834342956543,
                    -2.00344181060791,
                    -0.171250119805336,
                    0.16416506469249725,
                    -1.0073307752609253,
                    -0.031207986176013947,
                    0.7680120468139648,
                    1.0137557983398438,
                    -0.8480431437492371,
                    -0.6033344864845276,
                    0.3033810257911682,
                    1.7588512897491455,
                    0.4316694438457489,
                    0.2126784473657608,
                    -1.9006627798080444,
                    0.561628520488739,
                    0.4993399977684021,
                    -1.1109859943389893,
                    -1.439974069595337,
                    0.27681490778923035,
                    0.520572304725647,
                    -0.492754191160202,
                    1.1204488277435303,
                    0.2605838477611542,
                    1.8032844066619873,
                    -0.2951214611530304,
                    0.5173851251602173,
                    1.1455984115600586,
                    -1.9241570234298706,
                    0.9418865442276001,
                    -0.11325373500585556,
                    -1.654298186302185
                ],
                [
                    0.4215100407600403,
                    -0.8521873354911804,
                    -0.13323353230953217,
                    2.258922815322876,
                    2.0528159141540527,
                    -0.12086868286132812,
                    1.4155972003936768,
                    0.9743939638137817,
                    -0.4227314591407776,
                    -0.3417659103870392,
                    2.9760594367980957,
                    -1.6607285737991333,
                    0.6661693453788757,
                    -0.43806448578834534,
                    0.1629147082567215,
                    -0.12065094709396362,
                    0.12129323184490204,
                    -0.7487877011299133,
                    -0.665184497833252,
                    -0.8296434879302979,
                    -0.8395638465881348,
                    -0.979158878326416,
                    -0.4339269995689392,
                    2.180788993835449,
                    -1.9516174793243408,
                    0.1637580394744873,
                    0.9037076830863953,
                    0.39158132672309875,
                    2.1155624389648438,
                    0.7487461566925049,
                    -0.9595528841018677,
                    1.0208247900009155,
                    0.2386200875043869,
                    -0.06309332698583603,
                    1.7148703336715698,
                    0.30868303775787354,
                    -1.8777647018432617,
                    -0.7969895601272583,
                    -0.5895207524299622,
                    -0.8710901737213135
                ],
                [
                    0.6864338517189026,
                    0.7014896273612976,
                    1.2269216775894165,
                    -1.1390035152435303,
                    -0.6948224306106567,
                    -0.3088377118110657,
                    0.01850919798016548,
                    -0.7287619709968567,
                    -0.004917429760098457,
                    -0.3460417091846466,
                    1.165273904800415,
                    -1.2522096633911133,
                    -0.8433276414871216,
                    -0.32225924730300903,
                    1.2892659902572632,
                    0.6888725757598877,
                    -1.858015537261963,
                    0.33670148253440857,
                    0.09295501559972763,
                    -0.02247605472803116,
                    -0.3722754418849945,
                    0.291951984167099,
                    -1.033031940460205,
                    0.5980528593063354,
                    -0.303781658411026,
                    0.6368507146835327,
                    2.03855299949646,
                    0.7035285234451294,
                    0.828005313873291,
                    -0.9115868210792542,
                    -0.8128151893615723,
                    -0.8764089941978455,
                    -2.9086287021636963,
                    1.017819881439209,
                    0.1674504429101944,
                    0.9540038108825684,
                    -1.2272814512252808,
                    0.44161882996559143,
                    1.5794306993484497,
                    -0.7915638089179993
                ],
                [
                    0.6527007818222046,
                    -0.5802615284919739,
                    -1.0625526905059814,
                    -0.14616923034191132,
                    0.5414544939994812,
                    -0.6519541144371033,
                    0.3568474352359772,
                    -0.9165683388710022,
                    -0.09525948762893677,
                    0.3022681772708893,
                    -0.7216936349868774,
                    0.04912976920604706,
                    0.6665099263191223,
                    1.2496079206466675,
                    0.9453272819519043,
                    -0.6465926766395569,
                    -0.47947457432746887,
                    -0.739668071269989,
                    -1.1942791938781738,
                    -0.822097659111023,
                    -1.5492385625839233,
                    -2.0322771072387695,
                    0.47905832529067993,
                    1.6855957508087158,
                    -0.6776307821273804,
                    1.643449306488037,
                    -2.3957977294921875,
                    1.8458664417266846,
                    0.3075051009654999,
                    0.9531826972961426,
                    -0.5306676030158997,
                    -0.32210180163383484,
                    -1.0384306907653809,
                    0.1495344042778015,
                    -0.6845848560333252,
                    -0.5607073903083801,
                    1.7449886798858643,
                    1.378147840499878,
                    -2.0423829555511475,
                    -0.4396190643310547
                ],
                [
                    1.2350456714630127,
                    -0.7186192870140076,
                    1.2434073686599731,
                    -0.173976331949234,
                    0.10367980599403381,
                    1.3219108581542969,
                    0.44901105761528015,
                    -0.6493442058563232,
                    0.3397637605667114,
                    -0.9162178039550781,
                    -0.9127116799354553,
                    -0.625667929649353,
                    -0.41672173142433167,
                    -0.5932460427284241,
                    -1.2660856246948242,
                    0.24450606107711792,
                    0.9087603092193604,
                    1.259455919265747,
                    -0.1278352588415146,
                    -0.6360300779342651,
                    0.06167200952768326,
                    -0.2460704892873764,
                    -1.213111400604248,
                    0.9867137670516968,
                    -1.5959281921386719,
                    -0.010727426037192345,
                    -0.25005412101745605,
                    -0.4111596643924713,
                    -1.980061411857605,
                    -0.29424262046813965,
                    -0.8497305512428284,
                    -0.9832611680030823,
                    3.0129261016845703,
                    -1.1113128662109375,
                    -0.9186865091323853,
                    0.4172329902648926,
                    0.31602945923805237,
                    0.45270949602127075,
                    -0.8348875045776367,
                    -2.156602621078491
                ],
                [
                    0.5861221551895142,
                    -0.528056263923645,
                    1.7352157831192017,
                    -0.07374702394008636,
                    0.2887597382068634,
                    -0.35369813442230225,
                    -0.11260919272899628,
                    0.7300645112991333,
                    0.07004661858081818,
                    0.6632023453712463,
                    0.6596340537071228,
                    -1.3353368043899536,
                    0.6202268004417419,
                    1.122489333152771,
                    0.193135604262352,
                    -0.8896040916442871,
                    -0.8156006932258606,
                    -1.1851030588150024,
                    0.6438023447990417,
                    1.131499171257019,
                    1.0858501195907593,
                    -1.0822030305862427,
                    -1.592057704925537,
                    -1.5796935558319092,
                    -0.274052232503891,
                    -0.024909349158406258,
                    -1.1633613109588623,
                    0.7478311061859131,
                    -0.007504953537136316,
                    0.3381720781326294,
                    0.5648247003555298,
                    -1.7955745458602905,
                    0.08057254552841187,
                    0.4624690115451813,
                    -1.2693055868148804,
                    -2.5857250690460205,
                    -0.11417156457901001,
                    -0.13876646757125854,
                    1.3080286979675293,
                    0.9840039610862732
                ],
                [
                    -3.446171760559082,
                    -1.1260223388671875,
                    0.6358769536018372,
                    -0.30670928955078125,
                    1.2043558359146118,
                    -1.0241583585739136,
                    0.8858729600906372,
                    1.4374051094055176,
                    0.8906067609786987,
                    2.364710807800293,
                    -2.0087878704071045,
                    -0.6694307923316956,
                    0.0024749343283474445,
                    1.7152200937271118,
                    0.9555372595787048,
                    -0.07507393509149551,
                    -0.11419174075126648,
                    -0.9847059845924377,
                    -0.9883829951286316,
                    -0.21256332099437714,
                    -1.1272131204605103,
                    0.9674362540245056,
                    0.2085808664560318,
                    0.5627122521400452,
                    -1.0082006454467773,
                    2.9730801582336426,
                    0.12565739452838898,
                    0.9757185578346252,
                    -1.2291975021362305,
                    -0.31806594133377075,
                    0.5135006904602051,
                    -0.4903758764266968,
                    -0.16475708782672882,
                    -1.1621899604797363,
                    0.21173080801963806,
                    -0.5952569246292114,
                    0.45131728053092957,
                    0.9527994990348816,
                    -0.08482744544744492,
                    0.6047442555427551
                ],
                [
                    -2.084437131881714,
                    1.1174647808074951,
                    2.0330376625061035,
                    0.050090473145246506,
                    0.2035072296857834,
                    1.9751909971237183,
                    0.4607396423816681,
                    3.465717077255249,
                    1.3680734634399414,
                    -0.6191616654396057,
                    1.8566668033599854,
                    -1.1560134887695312,
                    -0.580510139465332,
                    0.30162888765335083,
                    1.8318668603897095,
                    -0.6296647191047668,
                    0.244129478931427,
                    -1.2518701553344727,
                    -0.7702423334121704,
                    1.1164199113845825,
                    -0.6738037467002869,
                    -1.0973105430603027,
                    -1.7098395824432373,
                    0.669051468372345,
                    1.8207422494888306,
                    1.8591164350509644,
                    -0.04295637086033821,
                    1.8089821338653564,
                    -0.6059902906417847,
                    -1.3097264766693115,
                    0.9846295714378357,
                    0.8869000673294067,
                    -0.9026700258255005,
                    -1.0799217224121094,
                    2.056490898132324,
                    -1.419914722442627,
                    -0.5471604466438293,
                    -0.45767128467559814,
                    2.050494432449341,
                    -2.072847843170166
                ],
                [
                    0.3765832483768463,
                    -1.1495966911315918,
                    -0.11436305195093155,
                    -0.4150332510471344,
                    -0.8959540724754333,
                    -1.396765112876892,
                    -0.5990737080574036,
                    -0.911206066608429,
                    -2.070070266723633,
                    -0.6577908992767334,
                    0.5127590894699097,
                    0.4772426187992096,
                    1.3769890069961548,
                    -0.7747143507003784,
                    -0.45687615871429443,
                    1.3374457359313965,
                    -0.37502482533454895,
                    -1.9383786916732788,
                    -1.5359622240066528,
                    2.9515421390533447,
                    1.913596749305725,
                    0.03150954470038414,
                    -0.23015981912612915,
                    0.5289369821548462,
                    -0.7985633611679077,
                    -0.46066033840179443,
                    0.9092704057693481,
                    -0.1508450210094452,
                    0.9801192879676819,
                    0.1214618980884552,
                    -1.8290938138961792,
                    0.013098238036036491,
                    -1.8863633871078491,
                    1.4789425134658813,
                    0.5480420589447021,
                    -0.49035409092903137,
                    1.0171928405761719,
                    -0.05622560903429985,
                    1.7099076509475708,
                    -0.5069102048873901
                ],
                [
                    -0.8227025866508484,
                    1.2334846258163452,
                    -0.26181793212890625,
                    -3.8799827098846436,
                    -0.3862728476524353,
                    -0.7387487888336182,
                    -2.122424840927124,
                    1.048190951347351,
                    -0.5707718729972839,
                    0.9068594574928284,
                    -0.8456315398216248,
                    0.49950823187828064,
                    0.6750810146331787,
                    0.44374164938926697,
                    -0.8034622073173523,
                    2.2309281826019287,
                    0.32957175374031067,
                    -1.123357892036438,
                    -0.40623146295547485,
                    -2.192438840866089,
                    -0.6601055264472961,
                    -0.5175178050994873,
                    -0.27513229846954346,
                    -1.088539958000183,
                    1.943176507949829,
                    0.1642078459262848,
                    0.6479542255401611,
                    1.0027492046356201,
                    -0.005211605690419674,
                    -1.9687408208847046,
                    -0.5794990658760071,
                    -0.32788220047950745,
                    0.2895621061325073,
                    -1.9694212675094604,
                    0.5160070657730103,
                    -0.3027527928352356,
                    -1.6756911277770996,
                    -2.0096633434295654,
                    1.1676537990570068,
                    1.1154649257659912
                ],
                [
                    -1.0155534744262695,
                    -0.7596597671508789,
                    -0.5955675840377808,
                    -0.9049054384231567,
                    0.21620897948741913,
                    -1.036393165588379,
                    -0.08022858202457428,
                    -0.6158677339553833,
                    -0.3657184839248657,
                    -0.9641320109367371,
                    -0.10241194069385529,
                    -0.1861007660627365,
                    0.744315505027771,
                    -0.60515296459198,
                    -1.0753611326217651,
                    -1.086588740348816,
                    0.7826381325721741,
                    -1.321730136871338,
                    -1.319093942642212,
                    0.10518256574869156,
                    1.548420786857605,
                    0.8671724200248718,
                    0.3865731656551361,
                    -0.5123786330223083,
                    1.0013995170593262,
                    1.2496337890625,
                    0.8729805946350098,
                    0.7067316174507141,
                    0.18442074954509735,
                    0.024309279397130013,
                    -0.8797666430473328,
                    -0.018671996891498566,
                    0.6805003881454468,
                    0.919181227684021,
                    1.2282952070236206,
                    -2.1617398262023926,
                    -1.1018511056900024,
                    -1.1578803062438965,
                    1.62510085105896,
                    -1.2064567804336548
                ],
                [
                    1.6762974262237549,
                    1.9835338592529297,
                    2.018115997314453,
                    0.48829516768455505,
                    -1.8206876516342163,
                    -0.9698969721794128,
                    1.6080012321472168,
                    -1.1611627340316772,
                    2.4589221477508545,
                    -1.0446484088897705,
                    0.2137007713317871,
                    -1.143662691116333,
                    -1.1774307489395142,
                    1.2689423561096191,
                    1.1304407119750977,
                    -0.26416024565696716,
                    1.2167564630508423,
                    -0.8745983839035034,
                    0.3867240846157074,
                    -1.9459433555603027,
                    -0.7998128533363342,
                    1.0032410621643066,
                    1.6771140098571777,
                    0.010092516429722309,
                    2.1534197330474854,
                    0.825954020023346,
                    -0.6259689927101135,
                    -1.6508049964904785,
                    -1.1011688709259033,
                    0.3977665305137634,
                    -0.37509897351264954,
                    -0.3605251908302307,
                    1.4382715225219727,
                    1.085083246231079,
                    -0.37593546509742737,
                    -0.6327203512191772,
                    -2.4051010608673096,
                    1.2520557641983032,
                    1.1254875659942627,
                    -0.7867432236671448
                ],
                [
                    -0.28974583745002747,
                    -1.2475521564483643,
                    1.204119324684143,
                    -3.2837159633636475,
                    -1.1152385473251343,
                    -0.06436787545681,
                    1.7728017568588257,
                    -0.6677806377410889,
                    0.13096420466899872,
                    -3.1626548767089844,
                    -2.088869333267212,
                    -0.3179900348186493,
                    -1.3609142303466797,
                    0.2676791250705719,
                    -2.0276689529418945,
                    1.0485103130340576,
                    -1.7291439771652222,
                    -1.212538480758667,
                    0.23681551218032837,
                    2.89365553855896,
                    -1.5553737878799438,
                    -1.2545301914215088,
                    -0.8204560279846191,
                    1.2066973447799683,
                    2.6364777088165283,
                    -0.12660525739192963,
                    1.0061976909637451,
                    0.14734014868736267,
                    1.1011592149734497,
                    2.8927793502807617,
                    1.9816350936889648,
                    -0.7798376679420471,
                    -0.38376909494400024,
                    -0.9667243957519531,
                    -1.1890143156051636,
                    -0.3885948657989502,
                    -1.8785830736160278,
                    0.8024255633354187,
                    -0.8917661309242249,
                    1.7508800029754639
                ],
                [
                    -1.1351269483566284,
                    0.22926756739616394,
                    -1.6666631698608398,
                    0.8286677002906799,
                    -0.5894713997840881,
                    0.4808475077152252,
                    -0.69893479347229,
                    0.22065290808677673,
                    0.7564609050750732,
                    0.8519890904426575,
                    -0.7359533309936523,
                    0.5181435346603394,
                    -0.18060605227947235,
                    0.3194041848182678,
                    -0.07204841077327728,
                    0.1404518336057663,
                    -0.14066565036773682,
                    -0.09842859208583832,
                    -0.6004303693771362,
                    -0.26767247915267944,
                    -1.1986960172653198,
                    0.49921369552612305,
                    0.7118867635726929,
                    -0.0609486848115921,
                    1.163568139076233,
                    -0.000559674168471247,
                    -0.07869696617126465,
                    -1.1158419847488403,
                    -0.8430928587913513,
                    1.3373907804489136,
                    -0.2832604646682739,
                    0.37179580330848694,
                    0.042531516402959824,
                    -0.45787930488586426,
                    0.4351150691509247,
                    -1.322737455368042,
                    -0.06698350608348846,
                    -0.7681602835655212,
                    0.6710641384124756,
                    0.7407352924346924
                ],
                [
                    -0.8125104904174805,
                    -0.5886408090591431,
                    0.08631730079650879,
                    0.7790660858154297,
                    2.485302448272705,
                    -0.039530716836452484,
                    0.3883258104324341,
                    1.1102465391159058,
                    0.5093646049499512,
                    1.9112783670425415,
                    -0.821950376033783,
                    0.614050567150116,
                    -0.35314294695854187,
                    0.19162064790725708,
                    -3.7320141792297363,
                    1.856833815574646,
                    3.440281629562378,
                    -2.357086658477783,
                    -0.33251118659973145,
                    0.5011754631996155,
                    -0.37964433431625366,
                    -0.16618157923221588,
                    0.5065637230873108,
                    -0.25604885816574097,
                    -0.8496260046958923,
                    -0.4115012586116791,
                    -1.0417240858078003,
                    -3.481414318084717,
                    -0.35385045409202576,
                    1.6821292638778687,
                    1.283541202545166,
                    1.1659150123596191,
                    -0.4100528657436371,
                    -1.3707340955734253,
                    0.4964376389980316,
                    2.330357313156128,
                    1.1987946033477783,
                    -1.1238938570022583,
                    -0.9848955273628235,
                    -0.19587138295173645
                ],
                [
                    -3.1972134113311768,
                    1.0120058059692383,
                    -0.6905761957168579,
                    -0.6123780608177185,
                    -0.8956495523452759,
                    -1.5675867795944214,
                    0.6955525279045105,
                    0.9320722818374634,
                    -0.03400436416268349,
                    -1.6465321779251099,
                    1.5696229934692383,
                    0.9796128869056702,
                    1.5933259725570679,
                    0.9130315780639648,
                    -0.4602329730987549,
                    -1.1814161539077759,
                    1.5836786031723022,
                    -2.5823440551757812,
                    -2.1972641944885254,
                    2.4597344398498535,
                    0.5179458260536194,
                    0.4747841954231262,
                    2.381545305252075,
                    -1.9185020923614502,
                    2.0520312786102295,
                    0.46439287066459656,
                    0.3692832887172699,
                    1.2718751430511475,
                    0.08909204602241516,
                    -1.4146040678024292,
                    0.7101413011550903,
                    1.671728491783142,
                    0.877008855342865,
                    -0.06553176045417786,
                    0.9481202960014343,
                    -1.3376874923706055,
                    -1.1094558238983154,
                    -0.06480676680803299,
                    1.0396168231964111,
                    -0.10861007124185562
                ],
                [
                    -0.7439460754394531,
                    0.24069292843341827,
                    -0.3084127604961395,
                    2.0702250003814697,
                    0.12761488556861877,
                    0.951594352722168,
                    -0.9713559150695801,
                    1.1416620016098022,
                    -0.4954115152359009,
                    1.2719861268997192,
                    0.5181775689125061,
                    -0.48713791370391846,
                    0.5775935053825378,
                    -1.3857678174972534,
                    1.4219883680343628,
                    0.701271653175354,
                    -0.8716673851013184,
                    1.1537535190582275,
                    -1.6739006042480469,
                    -0.9009260535240173,
                    0.43485701084136963,
                    -0.4922941327095032,
                    -0.8556504845619202,
                    1.0457007884979248,
                    1.1897214651107788,
                    0.5382670164108276,
                    0.4682673215866089,
                    1.1123443841934204,
                    1.0829404592514038,
                    0.4785727560520172,
                    0.6364234685897827,
                    -0.13736656308174133,
                    -3.6667897701263428,
                    -0.7254487872123718,
                    1.934809684753418,
                    1.1136738061904907,
                    1.1964707374572754,
                    -1.8826417922973633,
                    -0.20803311467170715,
                    1.7619664669036865
                ],
                [
                    -0.08590127527713776,
                    -0.7291247844696045,
                    -0.8306607007980347,
                    1.3022334575653076,
                    -2.018872022628784,
                    -1.509656310081482,
                    0.1298580914735794,
                    0.1828162670135498,
                    -1.671842336654663,
                    0.14205682277679443,
                    1.4638798236846924,
                    0.6525745391845703,
                    0.13319221138954163,
                    -0.439950168132782,
                    5.462170600891113,
                    -2.125030040740967,
                    -0.438416451215744,
                    1.6374192237854004,
                    -2.403033971786499,
                    -0.8326551914215088,
                    -2.0740714073181152,
                    -0.6069717407226562,
                    -0.842856764793396,
                    0.27587783336639404,
                    -1.4928232431411743,
                    0.01402947399765253,
                    1.7619835138320923,
                    0.40236538648605347,
                    -0.9506728649139404,
                    1.4878218173980713,
                    -0.3740411698818207,
                    -0.21312719583511353,
                    1.4502967596054077,
                    1.2578998804092407,
                    -0.2529286742210388,
                    -3.033350706100464,
                    -0.4918598532676697,
                    0.6020827889442444,
                    -0.8799843788146973,
                    -0.11334963887929916
                ]
            ],
            "biases": [
                -0.6599680185317993,
                0.23326918482780457,
                0.08306039124727249,
                -0.1421951800584793,
                -0.324537456035614,
                -0.21023614704608917,
                -0.35329264402389526,
                -0.5275037288665771,
                0.04916408285498619,
                -0.4731525182723999,
                0.47829365730285645,
                -0.5102267265319824,
                -0.38377130031585693,
                0.23232848942279816,
                -0.48695459961891174,
                -0.20965230464935303,
                -0.26358190178871155,
                0.18884366750717163,
                -0.1862819492816925,
                -0.5649449229240417
            ]
        },
        {
            "weights": [
                [
                    4.314967632293701,
                    -3.5204412937164307,
                    2.1110341548919678,
                    -1.5100501775741577,
                    4.193676471710205,
                    3.4597859382629395,
                    4.129878997802734,
                    2.9025795459747314,
                    -1.9342693090438843,
                    -3.4334468841552734,
                    -3.4723711013793945,
                    -4.898725509643555,
                    2.6665334701538086,
                    -2.549017906188965,
                    -3.2589738368988037,
                    3.1202480792999268,
                    2.1527233123779297,
                    3.660151481628418,
                    2.918384075164795,
                    2.80448842048645
                ],
                [
                    0.3328729569911957,
                    -3.2631053924560547,
                    -1.4252240657806396,
                    -0.40302976965904236,
                    0.6976971626281738,
                    0.8587728142738342,
                    -0.20822976529598236,
                    -0.6053152680397034,
                    -0.4620349407196045,
                    0.538281261920929,
                    -0.3016037046909332,
                    -0.9303245544433594,
                    0.28390011191368103,
                    0.5241605639457703,
                    0.0707637369632721,
                    1.7094829082489014,
                    -0.31757447123527527,
                    0.8597537279129028,
                    -0.47007665038108826,
                    0.0285953376442194
                ],
                [
                    -0.017748672515153885,
                    -0.1078026071190834,
                    0.07546602934598923,
                    -0.6685262322425842,
                    0.19574549794197083,
                    -0.3082992732524872,
                    -0.011268269270658493,
                    -0.2971954643726349,
                    0.03449393808841705,
                    -0.388770192861557,
                    -0.2052442580461502,
                    -0.013747873716056347,
                    -0.004627296235412359,
                    -0.5511996150016785,
                    -0.29813989996910095,
                    -0.324099063873291,
                    -0.08183178305625916,
                    -0.09307612478733063,
                    -0.06818395853042603,
                    0.15266986191272736
                ],
                [
                    0.2868066132068634,
                    0.016339028254151344,
                    0.2744311988353729,
                    -0.3530997335910797,
                    0.39601999521255493,
                    0.16816940903663635,
                    0.334377259016037,
                    0.044470373541116714,
                    -0.5192576050758362,
                    -0.7496191263198853,
                    -0.3828482925891876,
                    -0.3908930718898773,
                    0.38288623094558716,
                    -0.6272901296615601,
                    -0.23553122580051422,
                    -0.3168700933456421,
                    0.09636951237916946,
                    -0.28401896357536316,
                    0.046183761209249496,
                    0.17576685547828674
                ],
                [
                    0.11147802323102951,
                    -0.0710747241973877,
                    -0.5737932920455933,
                    -1.7504380941390991,
                    0.49067223072052,
                    -0.6279580593109131,
                    -0.18051159381866455,
                    -1.1530852317810059,
                    0.6255941390991211,
                    0.23507611453533173,
                    -0.4945741891860962,
                    0.6685019135475159,
                    0.21977944672107697,
                    -0.24587449431419373,
                    -0.11509117484092712,
                    -0.11476758122444153,
                    -0.37816131114959717,
                    -0.07035596668720245,
                    0.5345922112464905,
                    -0.15956376492977142
                ],
                [
                    3.693343162536621,
                    -4.792576313018799,
                    3.1131043434143066,
                    -2.3856236934661865,
                    2.6793925762176514,
                    1.735080361366272,
                    1.9641530513763428,
                    -0.3362027406692505,
                    -3.9127306938171387,
                    -0.03788457065820694,
                    -2.3971643447875977,
                    -2.094501256942749,
                    3.840001344680786,
                    -0.632550835609436,
                    -3.149782657623291,
                    -0.10938434302806854,
                    3.92704439163208,
                    0.5750210285186768,
                    2.4372262954711914,
                    3.5811336040496826
                ]
            ],
            "biases": [
                0.2701781988143921,
                1.7363778352737427,
                -0.2881917953491211,
                0.07112747430801392,
                -0.38835999369621277,
                2.013640880584717
            ]
        },
        {
            "weights": [
                [
                    -6.522482872009277,
                    4.842327117919922,
                    0.04978259280323982,
                    1.0311863422393799,
                    -1.8231855630874634,
                    -5.079390048980713
                ]
            ],
            "biases": [
                5.7490715980529785
            ]
        }
    ],
    "inputLookup": null,
    "inputLookupLength": 0,
    "outputLookup": null,
    "outputLookupLength": 0,
    "options": {
        "inputSize": 0,
        "outputSize": 0,
        "binaryThresh": 0.5,
        "hiddenLayers": [
            20,
            6
        ],
        "activation": "sigmoid",
        "leakyReluAlpha": 0.01,
        "learningRate": 0.03
    },
    "trainOpts": {
        "activation": "sigmoid",
        "iterations": 5000,
        "errorThresh": 0.005,
        "log": true,
        "logPeriod": 50,
        "leakyReluAlpha": 0.01,
        "learningRate": 0.03,
        "momentum": 0.1,
        "callbackPeriod": 10,
        "timeout": "Infinity",
        "beta1": 0.9,
        "beta2": 0.999,
        "epsilon": 1e-8
    }
}