{
    "type": "NeuralNetwork",
    "sizes": [
        24,
        10,
        1
    ],
    "layers": [
        {
            "weights": [],
            "biases": []
        },
        {
            "weights": [
                [
                    -0.16218015551567078,
                    0.15748508274555206,
                    -0.11493010818958282,
                    0.06569526344537735,
                    -0.11777988821268082,
                    -0.05029938742518425,
                    -0.006103035528212786,
                    -0.07537199556827545,
                    -0.034897785633802414,
                    -0.17395342886447906,
                    0.15530365705490112,
                    -0.09815628081560135,
                    0.09208275377750397,
                    0.006993639748543501,
                    -0.17871302366256714,
                    -0.019641920924186707,
                    0.12990644574165344,
                    0.18026244640350342,
                    -0.17389371991157532,
                    -0.1821582317352295,
                    -0.12423039972782135,
                    -0.12017140537500381,
                    -0.00013342127203941345,
                    -0.1926226019859314
                ],
                [
                    -0.029095400124788284,
                    0.13235236704349518,
                    0.15463468432426453,
                    -0.10992535203695297,
                    -0.10484791547060013,
                    0.09527813643217087,
                    -0.09289892017841339,
                    -0.05520593002438545,
                    -0.14154891669750214,
                    -0.17554597556591034,
                    0.07221974432468414,
                    0.12657055258750916,
                    0.05999908223748207,
                    -0.06797167658805847,
                    0.12881621718406677,
                    0.06319267302751541,
                    0.04939322918653488,
                    0.14159943163394928,
                    0.05315510928630829,
                    -0.2099066972732544,
                    -0.19614717364311218,
                    0.14757774770259857,
                    -0.07943879812955856,
                    0.1573297530412674
                ],
                [
                    0.16185764968395233,
                    -0.05914975702762604,
                    -0.18192072212696075,
                    0.021534722298383713,
                    -0.06553639471530914,
                    0.10339362174272537,
                    0.05489847809076309,
                    0.1930961310863495,
                    -0.027025707066059113,
                    -0.17339962720870972,
                    0.0525951012969017,
                    -0.13807255029678345,
                    -0.06066925823688507,
                    0.13679562509059906,
                    0.07732988148927689,
                    0.007281737867742777,
                    -0.11344978958368301,
                    0.12539121508598328,
                    0.08806610852479935,
                    0.02098510041832924,
                    0.06611134856939316,
                    0.17686152458190918,
                    -0.19984689354896545,
                    0.0881609320640564
                ],
                [
                    -0.07413523644208908,
                    -0.15000876784324646,
                    0.1187995970249176,
                    -0.15106871724128723,
                    -0.12628880143165588,
                    -0.1646917760372162,
                    0.12540802359580994,
                    -0.17626254260540009,
                    0.06580283492803574,
                    0.0533699132502079,
                    -0.0757647305727005,
                    -0.12476876378059387,
                    0.11175571382045746,
                    -0.19489166140556335,
                    -0.07061153650283813,
                    0.09064634144306183,
                    0.16062122583389282,
                    0.17955565452575684,
                    -0.09623938053846359,
                    -0.1834593564271927,
                    -0.18918250501155853,
                    0.16307833790779114,
                    -0.16855666041374207,
                    -0.18985877931118011
                ],
                [
                    0.09328858554363251,
                    0.06429989635944366,
                    -0.10882256925106049,
                    -0.043734073638916016,
                    0.09609968960285187,
                    -0.10537490248680115,
                    0.1039445623755455,
                    -0.16584739089012146,
                    -0.12479068338871002,
                    0.11631057411432266,
                    0.12340681254863739,
                    0.06844856590032578,
                    0.1039821207523346,
                    -0.10410338640213013,
                    -0.09154970198869705,
                    0.08106857538223267,
                    0.1154225617647171,
                    0.12895284593105316,
                    0.1793176382780075,
                    -0.13806919753551483,
                    -0.03653566911816597,
                    -0.08655566722154617,
                    0.1729256957769394,
                    0.030081411823630333
                ],
                [
                    -0.12004334479570389,
                    -0.1845635026693344,
                    -0.12574782967567444,
                    -0.027635905891656876,
                    0.09499789774417877,
                    0.16330358386039734,
                    0.045902982354164124,
                    0.10161031037569046,
                    -0.04150289669632912,
                    0.14657270908355713,
                    -0.0005168681964278221,
                    0.1458827704191208,
                    -0.07666797935962677,
                    0.09090334177017212,
                    -0.1853480190038681,
                    -0.13646487891674042,
                    0.16322463750839233,
                    0.13136029243469238,
                    0.15014103055000305,
                    -0.13836021721363068,
                    0.11865407228469849,
                    -0.16254393756389618,
                    -0.14906832575798035,
                    0.04710015654563904
                ],
                [
                    0.14286552369594574,
                    0.18621669709682465,
                    0.007644888944923878,
                    0.04557466879487038,
                    -0.013155567459762096,
                    -0.1069318950176239,
                    -0.07812458276748657,
                    -0.022153297439217567,
                    -0.010491320863366127,
                    -0.05343472212553024,
                    -0.13071373105049133,
                    -0.10946338623762131,
                    0.13388973474502563,
                    -0.08394240587949753,
                    0.0386330708861351,
                    0.045143209397792816,
                    0.12592674791812897,
                    0.18360498547554016,
                    0.038560137152671814,
                    0.1463211476802826,
                    0.17744192481040955,
                    -0.01768801361322403,
                    -0.005437319632619619,
                    0.18853451311588287
                ],
                [
                    0.1643689125776291,
                    0.14220446348190308,
                    0.12022264301776886,
                    -0.14294521510601044,
                    0.018088610842823982,
                    0.143086239695549,
                    0.03791119158267975,
                    -0.11532854288816452,
                    -0.14956019818782806,
                    0.11362169682979584,
                    0.1519070565700531,
                    0.10754773765802383,
                    0.0873279720544815,
                    0.17264865338802338,
                    0.06246836110949516,
                    0.01180417649447918,
                    0.17855560779571533,
                    0.013649392873048782,
                    -0.1570342630147934,
                    0.08929157257080078,
                    0.08964644372463226,
                    0.02170964702963829,
                    -0.11318284273147583,
                    0.057367078959941864
                ],
                [
                    -0.15624044835567474,
                    -0.20020326972007751,
                    -0.15114878118038177,
                    -0.08477893471717834,
                    0.12007099390029907,
                    0.03225751593708992,
                    -0.024571450427174568,
                    -0.11962801963090897,
                    -0.02270662598311901,
                    0.13056251406669617,
                    -0.1750592589378357,
                    0.1617925763130188,
                    -0.08187215775251389,
                    0.07620379328727722,
                    -0.20792318880558014,
                    -0.19304029643535614,
                    0.0836344063282013,
                    -0.16060912609100342,
                    0.046553585678339005,
                    -0.0180605947971344,
                    0.15714524686336517,
                    -0.14179567992687225,
                    0.00976529624313116,
                    0.06731929630041122
                ],
                [
                    -0.050176192075014114,
                    -0.0655316486954689,
                    -0.09640944004058838,
                    0.004813237581402063,
                    -0.08277339488267899,
                    0.013669404201209545,
                    0.054223623126745224,
                    -0.1452227085828781,
                    0.060796625912189484,
                    -0.005587587133049965,
                    -0.05321291461586952,
                    0.08691484481096268,
                    -0.0014881899114698172,
                    0.22726188600063324,
                    -0.11112690716981888,
                    0.021560095250606537,
                    0.07758131623268127,
                    0.01304842159152031,
                    0.10212475061416626,
                    -0.0034111780114471912,
                    0.04312451556324959,
                    0.13926386833190918,
                    0.16057929396629333,
                    -0.1678343564271927
                ]
            ],
            "biases": [
                -0.19356946647167206,
                -0.1377047747373581,
                0.12453759461641312,
                -0.1295483559370041,
                -0.012807264924049377,
                -0.1704806387424469,
                0.13518886268138885,
                -0.025863414630293846,
                -0.11643049865961075,
                -0.034765470772981644
            ]
        },
        {
            "weights": [
                [
                    -0.053417738527059555,
                    -0.04729553684592247,
                    0.02831241488456726,
                    -0.08996424823999405,
                    0.028197437524795532,
                    0.017423326149582863,
                    -0.003431719960644841,
                    0.05456472188234329,
                    -0.1291729360818863,
                    0.07916875183582306
                ]
            ],
            "biases": [
                0.21262498199939728
            ]
        }
    ],
    "inputLookup": null,
    "inputLookupLength": 0,
    "outputLookup": null,
    "outputLookupLength": 0,
    "options": {
        "inputSize": 0,
        "outputSize": 0,
        "binaryThresh": 0.5,
        "hiddenLayers": [
            10
        ],
        "activation": "tanh",
        "leakyReluAlpha": 0.01,
        "learningRate": 0.016
    },
    "trainOpts": {
        "activation": "tanh",
        "iterations": 2,
        "errorThresh": 0.005,
        "log": true,
        "logPeriod": 50,
        "leakyReluAlpha": 0.01,
        "learningRate": 0.016,
        "momentum": 0.1,
        "callbackPeriod": 10,
        "timeout": "Infinity",
        "beta1": 0.9,
        "beta2": 0.999,
        "epsilon": 1e-8
    }
}