{
    "type": "NeuralNetwork",
    "sizes": [
        24,
        6,
        1
    ],
    "layers": [
        {
            "weights": [],
            "biases": []
        },
        {
            "weights": [
                [
                    0.06696804612874985,
                    -0.03259957581758499,
                    -0.24577699601650238,
                    0.04964875802397728,
                    -0.07822980731725693,
                    0.0030652873683720827,
                    0.14382293820381165,
                    0.1469513475894928,
                    0.10009220242500305,
                    -0.4216616749763489,
                    0.13346461951732635,
                    0.11347099393606186,
                    0.08993032574653625,
                    0.06847189366817474,
                    -0.6154428720474243,
                    0.353403776884079,
                    -0.04744249954819679,
                    -0.20476794242858887,
                    0.13591480255126953,
                    -0.04249972105026245,
                    -0.09185699373483658,
                    0.4031795561313629,
                    -0.3811090588569641,
                    -0.25442805886268616
                ],
                [
                    0.07446514815092087,
                    -0.33873164653778076,
                    -0.4319368898868561,
                    -0.14538097381591797,
                    0.07614929229021072,
                    -0.042220454663038254,
                    -0.1615813672542572,
                    0.04210487753152847,
                    -0.07686354964971542,
                    -0.032179735600948334,
                    -0.28769126534461975,
                    -0.31726622581481934,
                    0.2295638471841812,
                    -0.12192734330892563,
                    -0.5086352229118347,
                    -0.12018391489982605,
                    0.09355203062295914,
                    -0.03734702989459038,
                    -0.01879170536994934,
                    0.020929621532559395,
                    0.06657849997282028,
                    0.07013101130723953,
                    0.4138962924480438,
                    0.3458184599876404
                ],
                [
                    0.3596440553665161,
                    -0.0007070747087709606,
                    0.16637754440307617,
                    0.03463774546980858,
                    -0.005774530116468668,
                    0.1276838183403015,
                    0.015162922441959381,
                    0.11623728275299072,
                    0.025363340973854065,
                    0.2594331204891205,
                    0.07026713341474533,
                    -0.014283769764006138,
                    0.5499258041381836,
                    0.10829224437475204,
                    0.08021236211061478,
                    -0.09203115105628967,
                    -0.27781862020492554,
                    -0.13673175871372223,
                    -0.126876100897789,
                    -0.16256144642829895,
                    -0.11648978292942047,
                    -0.6230405569076538,
                    -0.5108246207237244,
                    -0.0804537683725357
                ],
                [
                    0.050770506262779236,
                    0.43341490626335144,
                    0.11886841058731079,
                    0.17103804647922516,
                    0.1708563268184662,
                    -0.2026573270559311,
                    -0.02052913047373295,
                    -0.05245199799537659,
                    0.12679120898246765,
                    0.10888245701789856,
                    0.4155818223953247,
                    -0.0922996923327446,
                    -0.12801425158977509,
                    -0.8559024333953857,
                    -0.08204510807991028,
                    -0.4202147424221039,
                    -0.10715797543525696,
                    0.41090479493141174,
                    -0.10221970826387405,
                    -0.009199620224535465,
                    -0.013693489134311676,
                    -0.2946380376815796,
                    0.6733210682868958,
                    -0.05336683243513107
                ],
                [
                    0.19702456891536713,
                    -0.11825995147228241,
                    0.06698204576969147,
                    0.24596014618873596,
                    0.31160974502563477,
                    0.13736867904663086,
                    -0.00042284821392968297,
                    0.22385677695274353,
                    0.1445959061384201,
                    0.007570195477455854,
                    0.33358004689216614,
                    -0.18320433795452118,
                    0.2974519729614258,
                    -0.22545230388641357,
                    -0.6052829623222351,
                    0.15666800737380981,
                    -0.0123284375295043,
                    0.006986185442656279,
                    -0.10351411998271942,
                    0.08812103420495987,
                    0.027778932824730873,
                    -0.10621504485607147,
                    -0.18679696321487427,
                    0.21351590752601624
                ],
                [
                    0.4398807883262634,
                    0.2938283383846283,
                    -0.29885542392730713,
                    -0.0696115791797638,
                    -0.25315678119659424,
                    -0.10985653847455978,
                    0.11050424724817276,
                    0.13672155141830444,
                    0.08784428238868713,
                    -0.020873945206403732,
                    -0.022796407341957092,
                    0.10949841886758804,
                    0.6689690351486206,
                    -0.13090576231479645,
                    -0.05794604495167732,
                    -0.12983566522598267,
                    -0.15329766273498535,
                    0.05482794716954231,
                    0.202201247215271,
                    -0.2148190140724182,
                    -0.008963795378804207,
                    -0.11849287897348404,
                    0.4208279550075531,
                    -0.30006030201911926
                ]
            ],
            "biases": [
                -0.10897676646709442,
                -0.06347598135471344,
                -0.2665306329727173,
                0.02488657645881176,
                -0.18344376981258392,
                0.06503956764936447
            ]
        },
        {
            "weights": [
                [
                    -0.10297779738903046,
                    -0.09864480793476105,
                    -0.10221516340970993,
                    -0.07129259407520294,
                    0.11957425624132156,
                    0.08998007327318192
                ]
            ],
            "biases": [
                0.27101224660873413
            ]
        }
    ],
    "inputLookup": null,
    "inputLookupLength": 0,
    "outputLookup": null,
    "outputLookupLength": 0,
    "options": {
        "inputSize": 0,
        "outputSize": 0,
        "binaryThresh": 0.5,
        "hiddenLayers": [
            6
        ],
        "activation": "tanh",
        "leakyReluAlpha": 0.01,
        "learningRate": 0.001
    },
    "trainOpts": {
        "activation": "tanh",
        "iterations": 5000,
        "errorThresh": 0.005,
        "log": true,
        "logPeriod": 25,
        "leakyReluAlpha": 0.01,
        "learningRate": 0.001,
        "momentum": 0.1,
        "callbackPeriod": 10,
        "timeout": "Infinity",
        "beta1": 0.9,
        "beta2": 0.999,
        "epsilon": 1e-8
    }
}